digraph Tree {
node [shape=box] ;
0 [label="company2 <= 2.853\ngini = 0.66\nsamples = 550\nvalue = [292, 107, 23, 38, 41, 49]\nclass = T1"] ;
1 [label="company2 <= 0.024\ngini = 0.454\nsamples = 422\nvalue = [292, 107, 23, 0, 0, 0]\nclass = T1"] ;
0 -> 1 [labeldistance=2.5, labelangle=45, headlabel="True"] ;
2 [label="gini = 0.0\nsamples = 292\nvalue = [292, 0, 0, 0, 0, 0]\nclass = T1"] ;
1 -> 2 ;
3 [label="company1 <= 2.387\ngini = 0.291\nsamples = 130\nvalue = [0, 107, 23, 0, 0, 0]\nclass = T2"] ;
1 -> 3 ;
4 [label="company1 <= 0.975\ngini = 0.262\nsamples = 103\nvalue = [0, 87, 16, 0, 0, 0]\nclass = T2"] ;
3 -> 4 ;
5 [label="school <= 3.494\ngini = 0.242\nsamples = 78\nvalue = [0, 67, 11, 0, 0, 0]\nclass = T2"] ;
4 -> 5 ;
6 [label="school <= 1.755\ngini = 0.111\nsamples = 51\nvalue = [0, 48, 3, 0, 0, 0]\nclass = T2"] ;
5 -> 6 ;
7 [label="gini = 0.0\nsamples = 19\nvalue = [0, 19, 0, 0, 0, 0]\nclass = T2"] ;
6 -> 7 ;
8 [label="company2 <= 1.015\ngini = 0.17\nsamples = 32\nvalue = [0, 29, 3, 0, 0, 0]\nclass = T2"] ;
6 -> 8 ;
9 [label="gini = 0.0\nsamples = 29\nvalue = [0, 29, 0, 0, 0, 0]\nclass = T2"] ;
8 -> 9 ;
10 [label="gini = 0.0\nsamples = 3\nvalue = [0, 0, 3, 0, 0, 0]\nclass = T3"] ;
8 -> 10 ;
11 [label="company2 <= 1.587\ngini = 0.417\nsamples = 27\nvalue = [0, 19, 8, 0, 0, 0]\nclass = T2"] ;
5 -> 11 ;
12 [label="gini = 0.0\nsamples = 19\nvalue = [0, 19, 0, 0, 0, 0]\nclass = T2"] ;
11 -> 12 ;
13 [label="gini = 0.0\nsamples = 8\nvalue = [0, 0, 8, 0, 0, 0]\nclass = T3"] ;
11 -> 13 ;
14 [label="company1 <= 1.142\ngini = 0.32\nsamples = 25\nvalue = [0, 20, 5, 0, 0, 0]\nclass = T2"] ;
4 -> 14 ;
15 [label="school <= 3.472\ngini = 0.18\nsamples = 20\nvalue = [0, 18, 2, 0, 0, 0]\nclass = T2"] ;
14 -> 15 ;
16 [label="school <= 1.19\ngini = 0.1\nsamples = 19\nvalue = [0, 18, 1, 0, 0, 0]\nclass = T2"] ;
15 -> 16 ;
17 [label="company2 <= 1.095\ngini = 0.219\nsamples = 8\nvalue = [0, 7, 1, 0, 0, 0]\nclass = T2"] ;
16 -> 17 ;
18 [label="gini = 0.0\nsamples = 7\nvalue = [0, 7, 0, 0, 0, 0]\nclass = T2"] ;
17 -> 18 ;
19 [label="gini = 0.0\nsamples = 1\nvalue = [0, 0, 1, 0, 0, 0]\nclass = T3"] ;
17 -> 19 ;
20 [label="gini = 0.0\nsamples = 11\nvalue = [0, 11, 0, 0, 0, 0]\nclass = T2"] ;
16 -> 20 ;
21 [label="gini = 0.0\nsamples = 1\nvalue = [0, 0, 1, 0, 0, 0]\nclass = T3"] ;
15 -> 21 ;
22 [label="company2 <= 1.035\ngini = 0.48\nsamples = 5\nvalue = [0, 2, 3, 0, 0, 0]\nclass = T3"] ;
14 -> 22 ;
23 [label="gini = 0.0\nsamples = 2\nvalue = [0, 2, 0, 0, 0, 0]\nclass = T2"] ;
22 -> 23 ;
24 [label="gini = 0.0\nsamples = 3\nvalue = [0, 0, 3, 0, 0, 0]\nclass = T3"] ;
22 -> 24 ;
25 [label="company1 <= 3.515\ngini = 0.384\nsamples = 27\nvalue = [0, 20, 7, 0, 0, 0]\nclass = T2"] ;
3 -> 25 ;
26 [label="school <= 2.661\ngini = 0.444\nsamples = 6\nvalue = [0, 4, 2, 0, 0, 0]\nclass = T2"] ;
25 -> 26 ;
27 [label="gini = 0.0\nsamples = 2\nvalue = [0, 2, 0, 0, 0, 0]\nclass = T2"] ;
26 -> 27 ;
28 [label="school <= 3.272\ngini = 0.5\nsamples = 4\nvalue = [0, 2, 2, 0, 0, 0]\nclass = T2"] ;
26 -> 28 ;
29 [label="company2 <= 1.583\ngini = 0.444\nsamples = 3\nvalue = [0, 2, 1, 0, 0, 0]\nclass = T2"] ;
28 -> 29 ;
30 [label="gini = 0.0\nsamples = 2\nvalue = [0, 2, 0, 0, 0, 0]\nclass = T2"] ;
29 -> 30 ;
31 [label="gini = 0.0\nsamples = 1\nvalue = [0, 0, 1, 0, 0, 0]\nclass = T3"] ;
29 -> 31 ;
32 [label="gini = 0.0\nsamples = 1\nvalue = [0, 0, 1, 0, 0, 0]\nclass = T3"] ;
28 -> 32 ;
33 [label="school <= 1.757\ngini = 0.363\nsamples = 21\nvalue = [0, 16, 5, 0, 0, 0]\nclass = T2"] ;
25 -> 33 ;
34 [label="gini = 0.0\nsamples = 7\nvalue = [0, 7, 0, 0, 0, 0]\nclass = T2"] ;
33 -> 34 ;
35 [label="company2 <= 1.0\ngini = 0.459\nsamples = 14\nvalue = [0, 9, 5, 0, 0, 0]\nclass = T2"] ;
33 -> 35 ;
36 [label="gini = 0.0\nsamples = 9\nvalue = [0, 9, 0, 0, 0, 0]\nclass = T2"] ;
35 -> 36 ;
37 [label="gini = 0.0\nsamples = 5\nvalue = [0, 0, 5, 0, 0, 0]\nclass = T3"] ;
35 -> 37 ;
38 [label="school <= 1.585\ngini = 0.663\nsamples = 128\nvalue = [0, 0, 0, 38, 41, 49]\nclass = NONE"] ;
0 -> 38 [labeldistance=2.5, labelangle=-45, headlabel="False"] ;
39 [label="company2 <= 4.546\ngini = 0.635\nsamples = 24\nvalue = [0, 0, 0, 11, 8, 5]\nclass = T4"] ;
38 -> 39 ;
40 [label="company2 <= 3.835\ngini = 0.488\nsamples = 19\nvalue = [0, 0, 0, 11, 8, 0]\nclass = T4"] ;
39 -> 40 ;
41 [label="gini = 0.0\nsamples = 11\nvalue = [0, 0, 0, 11, 0, 0]\nclass = T4"] ;
40 -> 41 ;
42 [label="gini = 0.0\nsamples = 8\nvalue = [0, 0, 0, 0, 8, 0]\nclass = T5"] ;
40 -> 42 ;
43 [label="gini = 0.0\nsamples = 5\nvalue = [0, 0, 0, 0, 0, 5]\nclass = NONE"] ;
39 -> 43 ;
44 [label="company2 <= 3.83\ngini = 0.653\nsamples = 104\nvalue = [0, 0, 0, 27, 33, 44]\nclass = NONE"] ;
38 -> 44 ;
45 [label="gini = 0.0\nsamples = 27\nvalue = [0, 0, 0, 27, 0, 0]\nclass = T4"] ;
44 -> 45 ;
46 [label="company2 <= 4.804\ngini = 0.49\nsamples = 77\nvalue = [0, 0, 0, 0, 33, 44]\nclass = NONE"] ;
44 -> 46 ;
47 [label="gini = 0.0\nsamples = 33\nvalue = [0, 0, 0, 0, 33, 0]\nclass = T5"] ;
46 -> 47 ;
48 [label="gini = 0.0\nsamples = 44\nvalue = [0, 0, 0, 0, 0, 44]\nclass = NONE"] ;
46 -> 48 ;
}