digraph Tree {
node [shape=box] ;
0 [label="company2 <= 0.5\ngini = 0.66\nsamples = 550\nvalue = [292, 107, 23, 38, 41, 49]\nclass = T1"] ;
1 [label="gini = 0.0\nsamples = 292\nvalue = [292, 0, 0, 0, 0, 0]\nclass = T1"] ;
0 -> 1 [labeldistance=2.5, labelangle=45, headlabel="True"] ;
2 [label="company2 <= 1.5\ngini = 0.737\nsamples = 258\nvalue = [0, 107, 23, 38, 41, 49]\nclass = T2"] ;
0 -> 2 [labeldistance=2.5, labelangle=-45, headlabel="False"] ;
3 [label="gini = 0.0\nsamples = 107\nvalue = [0, 107, 0, 0, 0, 0]\nclass = T2"] ;
2 -> 3 ;
4 [label="company2 <= 4.5\ngini = 0.734\nsamples = 151\nvalue = [0, 0, 23, 38, 41, 49]\nclass = NONE"] ;
2 -> 4 ;
5 [label="company2 <= 3.5\ngini = 0.649\nsamples = 102\nvalue = [0, 0, 23, 38, 41, 0]\nclass = T5"] ;
4 -> 5 ;
6 [label="company2 <= 2.5\ngini = 0.47\nsamples = 61\nvalue = [0, 0, 23, 38, 0, 0]\nclass = T4"] ;
5 -> 6 ;
7 [label="gini = 0.0\nsamples = 23\nvalue = [0, 0, 23, 0, 0, 0]\nclass = T3"] ;
6 -> 7 ;
8 [label="gini = 0.0\nsamples = 38\nvalue = [0, 0, 0, 38, 0, 0]\nclass = T4"] ;
6 -> 8 ;
9 [label="gini = 0.0\nsamples = 41\nvalue = [0, 0, 0, 0, 41, 0]\nclass = T5"] ;
5 -> 9 ;
10 [label="gini = 0.0\nsamples = 49\nvalue = [0, 0, 0, 0, 0, 49]\nclass = NONE"] ;
4 -> 10 ;
}